<?xml version="1.0"?>
<opencv_storage>
<stage8>
  <maxWeakCount>4</maxWeakCount>
  <stageThreshold>-1.5753054618835449e+00</stageThreshold>
  <weakClassifiers>
    <_>
      <internalNodes>
        0 -1 5515 -37879810 -1080691905 -176292098 -38801137 -313131026
        -38470661 -722601729 -167906049</internalNodes>
      <leafValues>
        -8.8177341222763062e-01 5.8645796775817871e-01</leafValues></_>
    <_>
      <internalNodes>
        0 -1 4245 -2377478 -35914529 -1614864417 -573629425 -5505541
        -20481 -1087636485 -821568425</internalNodes>
      <leafValues>
        -7.9504585266113281e-01 5.8859932422637939e-01</leafValues></_>
    <_>
      <internalNodes>
        0 -1 1362 -24213457 -278841 -319392613 -1260388649 -51438338
        -77959608 -18044162 -8392709</internalNodes>
      <leafValues>
        -7.1594208478927612e-01 6.6252660751342773e-01</leafValues></_>
    <_>
      <internalNodes>
        0 -1 7159 -218367749 -67109379 -1293221889 -70256139 -1842104133
        -18153985 -1171792965 -82839553</internalNodes>
      <leafValues>
        -6.5077543258666992e-01 7.6534360647201538e-01</leafValues></_></weakClassifiers></stage8>
</opencv_storage>
